{
  "weights": [
    [
      2.497544946815705,
      1.3578293177710492,
      0.3962894703540965,
      -1.2144777233014041,
      -0.7524573795590972,
      1.3249393872814017,
      1.2158092430035343,
      -1.2837604148252595,
      1.328077567917601,
      0.3676034948143101,
      1.0441965140666989,
      -1.5317926213201316,
      -1.876386423614914,
      -0.08914735848984012,
      0.8515518979225827,
      1.158455584317164,
      -0.959932239644874,
      1.4518752722120496,
      1.017399861052624,
      -1.840457979624028,
      1.2578442253317808,
      -0.5071890714722836,
      -0.4983640161187317,
      1.7926279402065006,
      -1.1519296696859906,
      -1.1764540757902235,
      0.9893993160467125,
      -0.015403725407515445,
      0.6654328911320144,
      1.5249102376793995,
      1.6400657021014644,
      1.8551153864569416,
      0.8304883411896653,
      0.7119493762452551,
      -1.6683172603491951,
      1.686335824927622,
      0.023859793874379864,
      -1.238415055352886,
      -0.16177804478497793,
      -1.6182927181807836,
      1.1283346589920895,
      0.2806653327659845,
      -1.6240690689513566,
      -0.8747321401372283,
      0.17742381362590276,
      -0.4789605774171388,
      0.8721739609895591,
      0.6448181510469722,
      -0.5386540208435395,
      1.3025909087433023,
      -0.5606569602061686,
      -1.1811628717149452,
      0.3270324103915221,
      -1.2175668210635648,
      -1.2667195613537054,
      0.24884059805347203,
      -1.2333324852987797,
      -0.9006754899834815,
      -0.08143446315452074,
      1.9317799716066912,
      0.16080710188445124,
      0.3306794740973793,
      0.3212031106587192,
      0.42305491018389496,
      -1.146160607632095,
      -1.3916650029000937,
      1.2763842951543274,
      1.643874999922693,
      1.148588355648462,
      1.1917682067165467,
      -0.9333871612319746,
      -0.82283552527631,
      1.4073581155597275,
      1.1378651748606856,
      -0.9477744015673792,
      -1.6536086263792482,
      0.4247127918862512,
      1.8542773438747662,
      -1.6324862315734023,
      0.311448363516289,
      0.7323333282775413,
      0.452984605097813,
      1.0939363984235002,
      0.8372885350646389,
      -1.406862634474885,
      1.7438366426831107,
      -1.1985242533915734,
      0.11164105768312416,
      0.29024068649494994
    ],
    [
      -1.2900478292897075,
      1.6930923653450294,
      1.5170381777898005,
      1.297534886163196,
      0.9803225008525671,
      1.430689840798323,
      1.5644277237646373,
      -0.8710392707892178,
      0.6516548589249473,
      1.6454332016463944,
      -0.5661975367345655,
      -1.7186970088222298,
      -1.2748072597603204,
      -1.4227032837998377,
      -1.0301588059614528,
      0.6580378693017019,
      0.6065802447915907,
      -1.7986208495369924,
      1.7563802743658492,
      1.5275812796228632,
      0.45240906793999613,
      1.1132093197677906,
      0.7407994369088451,
      -0.8548559546262844,
      0.7195105784085447,
      0.12622326767857173,
      -0.5141885670566158,
      -1.9454656588635553,
      1.167792861617563,
      1.6569550627316434,
      -0.20785695975065233,
      -0.5530143751219074,
      1.0879746298894983,
      -0.49935293712629525,
      -0.11603360965097931,
      0.560275799206837,
      1.5868944027528866,
      -0.2022359030876384,
      0.6463582736816047,
      -0.9831840928721016,
      1.1304376158724705,
      1.3941079642120249,
      1.7862829592740446,
      1.7995590754610515,
      0.9788459506527585,
      -1.8861766994274278,
      -0.07814035730653357,
      -0.9349122912563477,
      -1.1025328333022757,
      -0.7614096663836114,
      -1.9822507115867585,
      -1.8724066494967087,
      -1.759179101078085,
      -1.4219688824331445,
      0.3704168756956343,
      -1.0336149826514411,
      1.7809983731196408,
      -1.5031760545732356,
      0.03163107550065858,
      1.276754171733952,
      1.987525791835973,
      -1.3124685241577518,
      1.9351090508672737,
      1.5849589809663454,
      -0.43659949599007364,
      0.10047723689651811,
      -1.6930316992394747,
      -0.1937235768790635,
      0.6673790717212693,
      -0.45063725785918685,
      1.3176766263730375,
      -1.3424011302576213,
      -1.978320874959012,
      -1.5483256462122812,
      1.5126462177551425,
      -0.19636174949251428,
      0.5608715708111736,
      1.8208431082732286,
      -1.675669126429323,
      0.5383336064018001,
      0.2532548948989999,
      1.0109597089600477,
      0.9827925889407627,
      1.9903726595241045,
      -0.5055289858198684,
      1.872478205151992,
      1.4010642756038543,
      1.6518146447758333,
      0.7426586753464539
    ],
    [
      1.9525935240254464,
      1.93804278519004,
      -1.3966542325042544,
      1.612704618150309,
      1.2343410591603217,
      1.5318803894414295,
      1.715242321087203,
      -1.5421035095204898,
      0.7300789303995043,
      0.6404649772575159,
      -0.3341573775244232,
      -0.10269623026368047,
      1.4938636973104238,
      -1.7035672287839163,
      -0.519547998879998,
      1.8261147070783164,
      -1.3215555684580091,
      1.8089789053599725,
      -0.13950477394818472,
      1.1977876022226912,
      1.4456063874548906,
      -1.4342853800257103,
      -0.1780406242297894,
      -1.2148303698123857,
      1.7276268956800056,
      0.19566109716049507,
      1.668060444626978,
      0.20450005056392406,
      -0.8618707256226839,
      1.3597940714796315,
      -1.0026861757790169,
      1.618615390365731,
      -1.0956680511354309,
      0.5103691851447008,
      1.8740867987522891,
      -1.1161676015347264,
      0.5661765631111799,
      -0.7106972287265596,
      0.8381752769541864,
      -0.9237824124295431,
      1.5700279264808477,
      0.39323248166833746,
      1.0393270286201974,
      0.12798672209696127,
      -1.954876298617529,
      0.3054051862390543,
      -1.2806598640231908,
      0.939029504638006,
      1.905141588349799,
      1.887078000829935,
      1.9106979266444775,
      0.4570667068685763,
      1.4137986739826554,
      -1.7181812315692078,
      -1.894470116614701,
      1.5016374785567645,
      0.21505608145002464,
      -0.38079993062763284,
      -1.4507162730282412,
      -0.18294055587900315,
      0.5155610131005384,
      1.7384334754742738,
      1.7638710194760074,
      -0.5190203690989126,
      -0.7950730934382291,
      -0.1638805705726134,
      -1.8833155242331587,
      0.2831792829504889,
      1.814417694754598,
      0.759674447828548,
      -1.9314793490598174,
      1.5765568932100087,
      -0.3660051972825684,
      1.2582858844816716,
      -1.376224187443106,
      1.9032551944586973,
      -1.1153753292195407,
      1.8598283395025303,
      1.165939520106006,
      -0.5691769659257462,
      -1.3053233260156079,
      1.0540848627002504,
      -1.659149390065311,
      -0.8669881711908265,
      1.1657512654273732,
      0.8161267965679806,
      0.8653022381288498,
      0.9294465629252873,
      2.1889786708543384
    ],
    [
      -1.4595923896495386,
      -1.1466617403252313,
      -1.6277336851835487,
      -1.952616129144889,
      1.3396569091689425,
      -1.8431567165081266,
      0.23246412226719748,
      0.9263637807300706,
      0.2813416195055294,
      0.027238937054204104,
      0.11653585598519545,
      1.6885777066554204,
      -0.9889412596042746,
      -0.6327867584854499,
      0.5423662738987907,
      1.58985548197027,
      -0.8400136729687651,
      0.1266029568285587,
      -1.5737338599482977,
      -0.8181191841574802,
      -1.4413328406907766,
      -0.8549946429286446,
      0.32500091740297776,
      1.4245246538393266,
      0.6016452910487158,
      0.1561716801420907,
      0.7735051177172876,
      -1.8810662629993025,
      -0.05497758021125332,
      -1.9977519888823907,
      1.4924796063267787,
      0.15382430557707139,
      0.6326486381365952,
      0.7126653325907149,
      -1.8158464260767833,
      1.5951707514879776,
      -0.40659641541314073,
      0.15108842611920734,
      3.057653206001981,
      -0.4160917165780411,
      0.20177771370329567,
      -0.7585854486457166,
      0.0021607449557485836,
      -0.09759773559054352,
      1.0747867735645196,
      0.5556886634467499,
      -1.8543605551452589,
      1.0045936462313554,
      1.8492928769032342,
      1.6512109658032035,
      1.0009107007343534,
      0.27244127744162716,
      -1.7473377011129938,
      0.7712995765349415,
      1.6407422638861902,
      -0.8638076541096971,
      -0.6923227384975372,
      1.9805506844436933,
      -0.9766662529763415,
      -0.4258154146853812,
      0.42218624005665095,
      -0.3497374903525623,
      -1.4877207915998616,
      -1.2813757493639746,
      1.9977540695794795,
      -0.3133752826568519,
      -0.9000490646604278,
      -0.12291984668800993,
      -0.7748913100487065,
      1.612041501171594,
      0.012854770182959108,
      -0.1892351393153029,
      -1.1020041381182089,
      -0.7020056592498571,
      1.0215510284146179,
      0.26808364172528876,
      -1.3127437306600576,
      -1.4130789987134018,
      0.05534478679552013,
      -1.4026635740894369,
      0.016311580513035384,
      0.48322472643860914,
      0.3025753693402198,
      -1.5039505102541275,
      0.007274173967379838,
      1.7415229999570934,
      -0.058417279775800246,
      1.9602458790679336,
      -0.4431967093924478
    ],
    [
      -1.0032010574115184,
      0.9343817827460654,
      -1.1632503011782869,
      -0.6090546264660426,
      -1.3968491496480975,
      1.1923904469926732,
      0.9049306291554662,
      1.4787998439457195,
      -0.9029783616107299,
      -0.6004960201703744,
      -1.3117371358721113,
      -0.37464543749832835,
      -1.8456946275751855,
      -1.7023345547736488,
      0.4384987561678386,
      1.2669805438239155,
      0.07844129196255967,
      -1.1478855733463447,
      0.9945249224499197,
      -0.9900895217635406,
      2.128641382539883,
      -0.01979353327264933,
      -1.8203662280077628,
      0.9785022440500599,
      -1.0985205277159844,
      1.8007276210905014,
      -0.417299544804163,
      0.2872825295137167,
      0.5437838209430144,
      -1.0819762819294327,
      1.287665475238251,
      0.9001528657698077,
      -1.0752934291633847,
      -0.046580767024389846,
      0.2628229688441768,
      -0.9152940849543008,
      1.3677474976306958,
      2.28297379918874,
      0.4687320986828838,
      -1.1028902800900178,
      -0.5332061006459958,
      -0.01703959461292781,
      -0.06437080569191966,
      -1.417992160249487,
      0.16605943486337793,
      0.1208495430408778,
      -1.6473179637063953,
      1.617860482460396,
      -1.5675660284191792,
      -1.4092526180832516,
      -1.7195962820071369,
      0.18033438994282802,
      1.7569772952239355,
      1.7486793194145913,
      1.5364771426959352,
      1.7770919712440545,
      -0.3362978006183428,
      0.8381341824242736,
      0.3992839723659065,
      -0.8410433265187769,
      -0.7865856153782094,
      -1.4304767195652612,
      -1.5463749659477584,
      -0.3541627801038665,
      1.4836538349559047,
      -1.833091420937381,
      1.9472705355887978,
      0.898694618454662,
      -1.479531082241338,
      -1.4206668006441663,
      1.4992555930576068,
      -1.1777541521008055,
      1.628068273371047,
      -0.6519333779868726,
      -1.7237350426560094,
      -0.311841638052869,
      1.6365927190171803,
      -0.48456195967066984,
      -1.7262914306035029,
      -0.7930653760622213,
      1.8203424154116874,
      1.6692336861964487,
      -0.47392477311220205,
      0.11241635746673095,
      1.3841077146168619,
      0.647871419691556,
      -0.13229708689866726,
      1.3742508700679705,
      -0.27554311959896527
    ],
    [
      -1.7695247969927919,
      0.9902183535295819,
      1.9369836921403378,
      -0.591425843051506,
      0.9849656142422889,
      0.8514394393442277,
      0.704377378073147,
      -0.0682952310723759,
      -1.1942232303216467,
      0.07141123084576284,
      -0.6560740712921191,
      0.3033009805335949,
      -1.4634313975647775,
      1.7165367059471337,
      -1.3385670768360183,
      -1.6483960863106994,
      0.1692965595717162,
      -0.6340032127351569,
      0.7957472398599248,
      1.2175924301558028,
      0.5177943670712031,
      2.1410353442171615,
      -0.30724927525952883,
      1.724932001975263,
      -1.3795550004309232,
      1.1258776537039217,
      0.5361566504664657,
      -0.5188410466755431,
      0.7858896438281175,
      -1.964044662574989,
      1.3305061026014604,
      1.913911715004513,
      -1.8012342311403025,
      -1.5334877774605977,
      -0.0438458697233437,
      0.16759433687647673,
      -0.9903868679042338,
      1.574418691696983,
      -0.5286990657608399,
      -0.39579019098613566,
      0.020021205255575047,
      0.2625396071214583,
      0.59413127319235,
      -1.4770326246763656,
      0.38078767086952947,
      -1.3803447806160318,
      -1.30906360769729,
      -0.8027447609881544,
      -0.8088750021155731,
      -1.325298704281487,
      1.1017096407053977,
      -1.1003010893313019,
      -0.07265899977375678,
      0.26971593404839833,
      0.1683047653338079,
      -1.0564547872596837,
      1.8722563438120572,
      0.678017169322628,
      -0.021430553756029536,
      0.37772476568030156,
      1.350274926743399,
      -1.9358104506794453,
      -1.2874941817792296,
      1.4279901206446457,
      0.5080575697220935,
      -0.6622072746866241,
      0.6063552229622373,
      0.7480573868115372,
      0.7521344367102074,
      -0.6221849171955744,
      0.29913047964305095,
      -0.6824478532930991,
      0.48666758456875403,
      1.804237288751961,
      -0.7096576678023432,
      1.868722246006675,
      -1.8054153182348673,
      -1.3748288397322024,
      1.7246169693641713,
      -1.1974494103317066,
      -1.730544782722438,
      -0.3942384243494641,
      -0.24214799149792032,
      0.8686066608016172,
      0.663941199602629,
      0.9386037619009358,
      0.6091282709372066,
      -1.5417341932362687,
      -1.7432430202767049
    ],
    [
      1.1879863868327902,
      -0.3582702675538392,
      0.3161875436943,
      0.2060926520046329,
      0.49268070151186727,
      1.2372173020324548,
      0.9425161120855607,
      0.01297373312420147,
      0.9530029138221878,
      1.5299393353267154,
      -1.754784082492161,
      -1.7785518775415783,
      0.042246107524603005,
      -1.4563163122769658,
      1.5177022224419576,
      0.1673137372870847,
      0.7543023247869187,
      1.3974898615491722,
      -0.3252420734918542,
      1.8409259322249554,
      2.0792999419550413,
      0.15089362321211816,
      -1.675115257892863,
      1.7114695347890643,
      1.251682739022499,
      -0.5284235394820174,
      -0.388166466616394,
      -0.8512049923606728,
      1.5882367990567912,
      1.9974358048280119,
      -0.5162752329388591,
      0.6643811743801553,
      0.10459437199394195,
      1.0243635396653785,
      -1.082092709360308,
      0.6121049158330383,
      -0.3460684710699353,
      1.7174781025260253,
      1.0218275761345441,
      -1.7041839337343467,
      0.8119308339833049,
      -0.09678383315865657,
      -1.3779634533577854,
      1.0101521266241793,
      -0.38470521655376144,
      -0.3430506034090257,
      -1.570951478243297,
      -1.621089624633167,
      0.7273213523355975,
      -1.6186897789215822,
      -1.3811525139026726,
      -0.9334834931202458,
      1.8441182917814802,
      -1.5718610093372942,
      0.46097396523646994,
      -1.9541060921378994,
      -1.459890713668865,
      1.0515015655372504,
      0.44016314984190297,
      0.4843241015953712,
      1.5598222632004726,
      -0.7848219214019303,
      0.5410718120125177,
      -1.6067125362564147,
      -1.8858521296986561,
      -1.5009147195557397,
      0.5810634856233041,
      -1.0772420203946154,
      -1.1976724238691676,
      -0.578030278387498,
      -0.6413389133819924,
      -0.23281455617067337,
      0.4764287384932535,
      0.390393114564793,
      -0.7857057879219211,
      0.7824851813275555,
      -0.36603338240714933,
      -0.32606495053233564,
      0.3233615423161438,
      -1.25367474145343,
      0.25357094317824236,
      -1.7298717104656558,
      -0.9791693116796854,
      -0.09179200636104579,
      -1.1088414196718075,
      1.6266723446058848,
      1.0683445835965322,
      -0.8197061727171078,
      -0.6793417597014395
    ]
  ],
  "biases": [
    0.8637441668886864,
    2.0173525131091186,
    0.2875440379744939,
    1.088798838258674,
    0.5471646425022334,
    0.9674251184076346,
    0.44362510508609027
  ],
  "database": [
    {
      "title": "Built-in Functions",
      "description": "Print values to standard output, separated by spaces.",
      "summary": "The Sesi built-in functions reference provides a comprehensive guide to I/O, type conversion, collection manipulation, file system operations, and network communication. It details how to handle data structures, interact with the operating system, and manage concurrent processes or workflows. The documentation also outlines error handling mechanisms, debugging tools, and standard library modules available for extended functionality.",
      "code_examples": [
        "print \"Hello\"\nprint 42\nprint \"Value:\", 10 + 20\nprint [1, 2, 3]",
        "let name = input(\"Enter your name: \")\nprint \"Hello,\" name",
        "type(42)           // \"number\"\ntype(\"hello\")      // \"string\"\ntype(true)         // \"bool\"\ntype(null)         // \"null\"\ntype([1, 2, 3])    // \"array\"\ntype({})           // \"object\"",
        "str(42)            // \"42\"\nstr(3.14)          // \"3.14\"\nstr(true)          // \"true\"\nstr([1, 2, 3])     // \"[1, 2, 3]\"\nstr({ \"a\": 1 })        // \"{'a': 1}\"",
        "to_json({ \"a\": 1, \"b\": [1, 2] })",
        "let raw = \"{\\\"a\\\": 1, \\\"b\\\": [1, 2]}\"\nlet obj = from_json(raw)\nprint obj[\"a\"]     // 1",
        "num(\"42\")          // 42\nnum(\"3.14\")        // 3.14\nnum(true)          // 1\nnum(false)         // 0\nnum(\"hello\")       // null (can't convert)",
        "bool(1)            // true\nbool(0)            // false\nbool(\"\")           // false\nbool(\"hello\")      // true\nbool([])           // true\nbool(null)         // false",
        "len(\"hello\")       // 5\nlen([1, 2, 3])     // 3\nlen({ \"a\": 1, \"b\": 2 })  // 2\nlen(null)          // null (invalid)",
        "range(5)           // [0, 1, 2, 3, 4]",
        "let arr = [1, 2, 3]\npush(arr, 4)\nprint arr          // [1, 2, 3, 4]",
        "let arr = [1, 2, 3]\nlet last = pop(arr)\nprint last         // 3\nprint arr          // [1, 2]",
        "let arr = [1, 2, 3]\njoin(arr, \"-\")     // \"1-2-3\"\njoin([\"a\", \"b\"], \", \")  // \"a, b\"",
        "split(\"a,b,c\", \",\")     // [\"a\", \"b\", \"c\"]\nsplit(\"hello world\", \" \")  // [\"hello\", \"world\"]",
        "to_upper(\"hello\")      // \"HELLO\"\nto_upper(\"Sesi V2.0\")  // \"SESI V2.0\"",
        "to_lower(\"WORLD\")      // \"world\"\nto_lower(\"Sesi V2.0\")  // \"sesi v2.0\"",
        "trim(\"  spaces  \")  // \"spaces\"",
        "slice(\"abcdef\", 1, 4)         // \"bcd\"\nslice([10, 20, 30, 40], 2)    // [30, 40]",
        "swap(\"a_b_c\", \"_\", \"-\")    // \"a-b-c\"",
        "contains(\"hello.sesi\", \".sesi\")  // true\ncontains(\"hello.sesi\", \".ts\")    // false",
        "locate(\"hello.sesi\", \".\")    // 5\nlocate(\"hello.sesi\", \"ts\")   // -1",
        "let obj = { \"name\": \"Alice\", \"age\": 30 }\nkeys(obj)          // [\"name\", \"age\"]",
        "let obj = {\"name\": \"Alice\", \"age\": 30}\nvalues(obj)        // [\"Alice\", 30]",
        "let numbers = [1, 2, 3]\nfn square(x) { return x * x }\nlet squares = map(numbers, square) // [1, 4, 9]",
        "let numbers = [1, 2, 3, 4]\nfn isEven(x) { return x % 2 == 0 }\nlet evens = filter(numbers, isEven) // [2, 4]",
        "let numbers = [1, 2, 3, 4]\nfn sum(acc, x) { return acc + x }\nlet total = reduce(numbers, sum) // 10\nlet totalWithInitial = reduce(numbers, sum, 10) // 20",
        "let numbers = [1, 3, 4, 7]\nfn isEven(x) { return x % 2 == 0 }\nlet match = find(numbers, isEven) // 4",
        "let text = read_file(\"input.txt\")\nprint text",
        "let success = write_file(\"output.txt\", \"Hello, Sesi!\")\nif success {print \"File written successfully\"}",
        "let success = write_image(\"logo.png\", logo_data)\nif success {print \"Image safely stored\"}",
        "let files = list_dir(\".\")\nprint files",
        "let success = make_dir(\"new_directory\")\nif success {print \"Directory created successfully\"}",
        "let html = convert(doc) {file_type: \"md\", output_type: \"html\"} {\"# Hello\"}\nprint html // \"<h1>Hello</h1>\"\n\nlet out_path = convert(doc) {output_type: \"html\"} {\"document.md\"}\nprint out_path // \"document.html\"",
        "let response = web_get(\"https://jsonplaceholder.typicode.com/posts/1\")\nprint response",
        "let payload = \"{\\\"title\\\": \\\"foo\\\"}\"\nlet response = web_send(\"https://jsonplaceholder.typicode.com/posts\", payload)\nprint response",
        "async fn handleRequest(req) {\n  print \"Request path is:\" req.path\n  return {\n    \"status\": 200,\n    \"body\": \"Hello from Sesi Server!\"\n  }\n}\n\nlet server = listen(8080, handleRequest)\n// ...\nserver.close()",
        "fn handleMessage(client, msg) {\n  print \"WS received:\" msg\n  client.send(\"Echo: \" + msg)\n}\n\nlet server = api(8989, handleMessage)\n// ...\nserver.close()",
        "let pid = spawn(\"worker.sesi\")\nprint \"Launched worker with PID:\" pid",
        "let files = exec(\"ls -la\")\nprint files",
        "let start = time()\n// ... do work ...\nprint \"Elapsed time:\" time() - start \"ms\"",
        "let timestamp = now()\nlet formatted = format(timestamp, {\"timeZone\": \"America/New_York\", \"timeStyle\": \"medium\"})\nprint formatted",
        "async fn job1() {\n  return \"a\"\n}\nasync fn job2() {\n  return \"b\"\n}\nlet results = multi_req([job1, job2])\nprint results // [\"a\", \"b\"]",
        "let steps = [{\"prompt\": \"Summarize:\"}, {\"prompt\": \"Critique:\"}, {\"prompt\": \"Finalize:\"}]\nlet result = workflow(steps, \"Design a landing page brief\")\nprint result[\"final\"]",
        "set_alias(\"fast\", \"gemini-3.1-flash-lite\")\nlet answer = model(\"fast\") {\"Summarize this paragraph.\"}",
        "fn summarize(text)\n{return \"Summary: \" + text}\n\ndefine_tool(\"summarizer\", summarize, \"Summarizes text\")\nlet result = tool_call(summarizer)(\"Hello\")",
        "let tools = list_tools()\nprint tools",
        "let err = error_type(\"ValidationError\", \"Missing email\", {\"field\": \"email\"})",
        "try {\n  raise_error(\"RateLimit\", \"Too many requests\", {\"retryIn\": 30})\n} catch (e) {print \"type:\" e[\"type\"] \"message:\" e[\"message\"]}",
        "fn volatileTask() {\n  if random() > 0.8 {\n    return \"Success!\"\n  }\n  raise_error(\"TemporaryError\", \"Task failed unpredictably\")\n}\n\nlet result = retry(volatileTask, 5)\n\nlet result2 = retry(volatileTask, {\n  max_retries: 4,\n  initial_delay: 500,\n  backoff_factor: 1.5\n})",
        "let rand = random()\nif rand > 0.5 {print \"Heads\"} else {print \"Tails\"}",
        "let x = 10\nlet y = 20\ndebug()  // Pauses execution and opens interactive sesi-debug REPL\nprint x + y",
        "print \"Number of script args:\" len(args)\nif len(args) > 0 {\n  print \"First script argument:\" args[0]\n}",
        "exp(0)             // 1.0\nexp(1)             // 2.718281828459045\nlet sigmoid = 1.0 / (1.0 + exp(0.0 - 0.5))\nprint sigmoid      // 0.6224593312018546",
        "allow \"std/math\" in with Math\n\nprint Math.sqrt(16) // 4\nprint Math.floor(3.7) // 3"
      ],
      "key_rules": [
        "Paths are resolved relative to the current working directory.",
        "write_file and write_image overwrite existing files.",
        "The workflow function automatically chains step outputs as input for subsequent steps.",
        "Sesi supports structured error handling via try/catch blocks.",
        "Modules are resolved based on a priority order: script directory, working directory, SESI_PATH, and ~/.sesi/lib.",
        "print() is unbuffered and flushes on every call.",
        "Database encryption uses AES-256-CBC when a password is provided."
      ]
    },
    {
      "title": "Sesi CLI",
      "description": "Sesi’s CLI is a powerful, zero-footprint environment orchestrator. It allows you to run robust scripts, evaluate inline code filelessly, query the RAG-powered interactive Co-Pilot, encrypt files, and manage sandboxing controls directly from your shell.",
      "summary": "The Sesi CLI provides a versatile interface for executing scripts, evaluating code in-memory, and managing file security through encryption. It includes advanced developer tools such as AST inspection, token stream visualization, and an interactive REPL for real-time development. Users can leverage a built-in Co-Pilot for context-aware assistance and utilize granular sandboxing controls to manage system-level permissions. The interface also integrates seamlessly with package managers to streamline workspace auditing and script management.",
      "code_examples": [
        "sesi main/test_args.sesi \"hello\" \"world\"",
        "let total = len(args)\n\nif total > 0 {\n  print \"First argument:\" args[0]\n}",
        "sesi -e \"let x = 10; let y = 20; print x + y\"",
        "sesi -e \"\nlet x = 10\nlet y = 20\nprint x + y\n\"",
        "sesi -e \"let path = args[0]; let content = read_file(path); print 'Character count:' len(content)\" \"package.json\"",
        "sesi -h \"how do I use standard json module?\"",
        "sesi examples/main/01_hello.sesi -h \"how can i improve this script?\"",
        "sesi main/script.sesi --local",
        "sesi main/script.sesi -a \"./data,./logs\"",
        "sesi --ast examples/main/01_hello.sesi",
        "sesi --tokens examples/main/01_hello.sesi",
        "sesi -enc my_private_script.sesi -p \"my-super-secret-password\"",
        "sesi --repl",
        "let name = input(\"What is your name? \")\nlet age = input(\"What is your age? \")\n\nprint \"User info:\" name \"is\" age \"years old\""
      ],
      "key_rules": [
        "Statements must be terminated by either a newline or a semicolon (;).",
        "Sesi runs in a safe-by-default, zero-trust sandbox; system shell commands are blocked unless the --local flag is used.",
        "The Current Working Directory and Script Directory are whitelisted by default for file access.",
        "Positional arguments passed to scripts or inline evaluations are bound to the global 'args' array.",
        "The 'SESI_PASSWORD' environment variable can be used to automate encryption/decryption without exposing passwords in shell history.",
        "In the interactive REPL, expression statements auto-print their evaluated results."
      ]
    },
    {
      "title": "Image Generation",
      "description": "Sesi provides a native, language-level primitive for image generation and manipulation, including image-to-image tasks like style transfer, upscaling, and editing.",
      "summary": "Sesi introduces the 'image' primitive to handle generation and manipulation tasks directly within the language syntax. It integrates with file system builtins like 'write_image' to manage binary data and supports multimodal inputs for vision-based tasks. Users can perform batch processing, reference-guided generation, and file-based analysis by passing local paths through configuration blocks.",
      "code_examples": [
        "image(\"model-name\") {configKey: \"configValue\"} {\"Prompt text\"}",
        "let imageData = image(\"gemini-3.1-flash-image-preview\") {ratio: \"1:1\", size: \"1K\"} {request}",
        "write_image(\"bakery_logo.png\", imageData)",
        "model(\"gemini-3-flash-preview\") {images: \"shots/frame_01.jpg\"} {\"Describe what is happening in this photograph in one paragraph.\"}",
        "let render = image(\"gemini-3.1-flash-image-preview\") {images: ref, ratio: \"16:9\"} {\"Render a full front elevation in the same visual style as the reference.\"}"
      ],
      "key_rules": [
        "Use the 'image' keyword followed by a model name, configuration block, and prompt block.",
        "The 'image()' call evaluates to a base64-encoded string.",
        "Use 'write_image(path, base64_content)' for saving images; do not use 'write_file'.",
        "The 'images' configuration key accepts a string or array of strings for vision tasks.",
        "Supported image formats include .jpg, .jpeg, .png, .gif, .webp, and .bmp.",
        "Multimodal input requires a vision-capable model.",
        "The 'images' key is resolved at runtime relative to 'process.cwd()'."
      ]
    },
    {
      "title": "Sesi",
      "description": "Sesi is a clean, minimal, and highly legible programming language. Built from the ground up to be concise and buildable, Sesi removes unnecessary boilerplate. It is a language built for clarity.",
      "summary": "Sesi is a general-purpose programming language designed for conciseness and readability, featuring an optional built-in toolchain for advanced logic and reasoning tasks.\nThe language includes a robust, safe-by-default sandboxing engine that prevents prototype pollution and restricts filesystem access to ensure secure execution.\nIt supports a wide range of features including native concurrency, HTTP client capabilities, structured output, and a modular standard library for file and system operations.",
      "code_examples": [
        "// Basic computation\nlet x = 10\nlet y = 20\nlet result = x + y\nprint result // 30\n\n// Reasoning-powered code generation\nprompt generateCode {\"Write a TypeScript function that reverses a string\"}\nlet code = model(\"gemini-3.1-pro-preview\") {generateCode}\nprint code",
        "const interpreter = new Interpreter(scriptDir, {\n  safeMode: true, // Enable full sandbox limits (on by default)\n  allowLocalFs: false, // Block directory escapes (on by default)\n  allowedPaths: [\"/var/tmp/sandbox\"], // Custom strict whitelist directories\n});"
      ],
      "key_rules": [
        "Safe-by-default execution: Sandbox is enabled by default, blocking system commands and locking down imports.",
        "Prototype pollution immunity: Uses prototype-free objects (Object.create(null)) for all object literals and JSON parsing.",
        "Strict path whitelisting: Filesystem and subprocess paths are validated against a whitelist; unauthorized access triggers a Security Violation.",
        "Automated tool sanitization: Blocks sensitive commands like exec and spawn when requested dynamically via tool_call.",
        "Deep isolation: Sub-interpreters use deep-cloning for prompts and memory to prevent state leakage between concurrent tasks."
      ]
    },
    {
      "title": "Sesi Roadmap",
      "description": "Sesi is designed to evolve with reasoning needs.",
      "summary": "The Sesi roadmap outlines a structured evolution from a foundational interpreter to a mature, high-performance language. Version 1.0 established core syntax and reasoning primitives, while subsequent versions focus on concurrency, advanced logic, and ecosystem expansion. The development path prioritizes simplicity, power, and long-term stability through a clear deprecation policy and backward compatibility guarantees.",
      "code_examples": [
        "// Variables and bindings (let)",
        "// Functions with parameters and types",
        "// Control flow (if/else, while, for, try/catch)",
        "// Operators (arithmetic, logical, comparison)",
        "// Arrays and objects",
        "// Type system with inference",
        "// Comments (// and /* */)",
        "// String concatenation",
        "// Error handling (try/catch blocks)",
        "model()",
        "structured_output()",
        "tool_call()",
        "spawn()",
        "exec()",
        "async/await"
      ],
      "key_rules": [
        "v1.x to v1.y: Full backwards compatibility.",
        "v1.x to v2.0: Mostly compatible with deprecation warnings for breaking changes.",
        "v2.x to v3.0: New features with old syntax remaining functional.",
        "Deprecation policy: Announce one version ahead, show compiler warnings, provide migration guides, and remove in the next major version.",
        "Interpreter is single-threaded; use spawn() for concurrency.",
        "No async/await in V1; introduced in V2.",
        "Implicit statement termination for blocks ending in }."
      ]
    },
    {
      "title": "Sesi Language",
      "description": "Sesi is built on these core principles: Conciseness and Legibility: The syntax is minimal. If a concept can be expressed simply, the language gets out of the way to let you express it. Buildable from Scratch: Sesi is a complete, functioning language with its own lexer, parser, and interpreter. Simplicity Enables Power: Because the core language is simple, complex operations (like hitting APIs or orchestrating processes) become trivial extensions of the language, rather than tangled SDK implementations. Transparency Over Magic: Sesi executes exactly what you write. Practicality: Focus on reducing boilerplate code, emphasizing what developers actually need over academic completeness.",
      "summary": "Sesi is a concise, minimal language designed for developers to build scripts, CLI tools, and orchestrate processes with minimal boilerplate. It features a robust standard library, a module system with multi-path resolution, and native support for model-based operations and structured data output. The language emphasizes transparency and simplicity, providing a frictionless environment for both logic-based tasks and complex integrations.",
      "code_examples": [
        "let x = 10\nlet y = 20\nlet z  // z is null initially",
        "fn add(a: number, b: number) {print a + b}\nfn greet(name: string = \"World\") {print \"Hello,\" name}",
        "for i = 0 to 10 {print i}\ntry\n{let result = \"Hello\"\n} catch (e) {\nprint e}",
        "let result = model(\"gemini-3.5-flash\") {images: \"scan.png\", thinkingLevel: \"low\"} {\"Transcribe all visible text.\"}",
        "let html = convert(doc) {file_type: \"md\", output_type: \"html\"} {\"# Heading\\nHello world\"}",
        "fn increment(x) { return x + 1 }\nfn double(x) { return x * 2 }\nlet result = 5 | increment | double // evaluates to 12"
      ],
      "key_rules": [
        "Sesi uses short-circuit evaluation for logical operators.",
        "Operations on null return null (no exceptions in v1.x).",
        "Model calls are blocking; concurrency is achieved via spawn().",
        "Lexical scoping applies, where inner scopes shadow outer scopes.",
        "Modules are resolved in order: script directory, current working directory, SESI_PATH, and ~/.sesi/lib.",
        "Type aliases include 'num' for 'number', 'str' for 'string', and 'any' for any value.",
        "Structured output provides type safety and schema-guided parsing with empty-object fallback."
      ]
    },
    {
      "title": "Sesi Scripts",
      "description": "Sesi is a general-purpose programming language with optional reasoning features. This tutorial focuses on writing practical scripts: command-line tools, file processors, API helpers, automation flows, and small orchestration programs.",
      "summary": "Sesi is a versatile scripting language designed for automating command-line tasks, file management, and API interactions. It supports standard programming constructs like variables, control flow, functions, and modules, while offering built-in capabilities for file system operations and shell execution. The language also provides optional integration for model-based tasks, including streaming responses and structured data output. Scripts can be modularized, debugged via CLI flags, and secured through encryption.",
      "code_examples": [
        "let name = \"Sesi\"\nprint \"Hello,\" name",
        "sesi -e \"let x = 10; let y = 20; print x + y\"",
        "fn format_status(name: string, ok: bool) {\n  if ok {\n    return name + \": ok\"\n  }\n  return name + \": failed\"\n}",
        "let result = 10 | add(5) | mul(2)",
        "let response = web_get(\"https://jsonplaceholder.typicode.com/posts/1\")",
        "let summary = model(\"gemini-3.1-flash-lite\") {stream: true} {\"Summarize this folder report:\" report_text}"
      ],
      "key_rules": [
        "Sesi scripts are saved as .sesi files and executed via the 'sesi' command.",
        "Use 'let' for variable bindings and standard control flow structures like 'if', 'while', and 'for'.",
        "File operations and network requests should be wrapped in 'try/catch' blocks to handle potential errors.",
        "The pipe operator (|) is used to compose function calls by passing output to the next function's first argument.",
        "Shell commands and broad filesystem access require the '-l' flag for security, acting as an explicit trust boundary.",
        "Modules are managed using 'export' and 'allow ... in with ...' syntax.",
        "Use 'retry' for robust handling of flaky operations like network requests or filesystem contention.",
        "Reasoning features are optional and invoked via 'model', 'prompt', or 'workflow' blocks."
      ]
    }
  ]
}